<?xml version="1.0"?>
<opencv_storage>
<stage0>
  <maxWeakCount>6</maxWeakCount>
  <stageThreshold>-1.6469537019729614e+00</stageThreshold>
  <weakClassifiers>
    <_>
      <internalNodes>
        0 -1 22744 -7.9640135169029236e-02</internalNodes>
      <leafValues>
        1.4285714924335480e-01 -9.0485626459121704e-01</leafValues></_>
    <_>
      <internalNodes>
        0 -1 465626 3.9701648056507111e-02</internalNodes>
      <leafValues>
        -6.9750803709030151e-01 2.8219670057296753e-01</leafValues></_>
    <_>
      <internalNodes>
        0 -1 92234 6.1618571635335684e-05</internalNodes>
      <leafValues>
        2.2095555067062378e-01 -7.3337447643280029e-01</leafValues></_>
    <_>
      <internalNodes>
        0 -1 505957 -2.6988929676008411e-05</internalNodes>
      <leafValues>
        -7.1017152070999146e-01 2.2692625224590302e-01</leafValues></_>
    <_>
      <internalNodes>
        0 -1 90329 -3.5948112781625241e-05</internalNodes>
      <leafValues>
        -7.4830752611160278e-01 2.5285845994949341e-01</leafValues></_>
    <_>
      <internalNodes>
        0 -1 246061 2.6275339769199491e-04</internalNodes>
      <leafValues>
        2.5583633780479431e-01 -7.1317791938781738e-01</leafValues></_></weakClassifiers></stage0>
</opencv_storage>
