<?xml version="1.0"?>
<opencv_storage>
<stage10>
  <maxWeakCount>10</maxWeakCount>
  <stageThreshold>-1.7413121461868286e+00</stageThreshold>
  <weakClassifiers>
    <_>
      <internalNodes>
        0 -1 436128 4.6804361045360565e-02</internalNodes>
      <leafValues>
        -8.6009854078292847e-01 -3.1764706969261169e-01</leafValues></_>
    <_>
      <internalNodes>
        0 -1 20444 -4.3789908289909363e-02</internalNodes>
      <leafValues>
        2.2047425806522369e-01 -5.2914106845855713e-01</leafValues></_>
    <_>
      <internalNodes>
        0 -1 491573 5.3825962822884321e-04</internalNodes>
      <leafValues>
        1.1862697452306747e-01 -8.0827265977859497e-01</leafValues></_>
    <_>
      <internalNodes>
        0 -1 16477 5.5382755817845464e-04</internalNodes>
      <leafValues>
        1.6632859408855438e-01 -5.7056403160095215e-01</leafValues></_>
    <_>
      <internalNodes>
        0 -1 222989 -1.2846583500504494e-02</internalNodes>
      <leafValues>
        4.4593995809555054e-01 -2.4873188138008118e-01</leafValues></_>
    <_>
      <internalNodes>
        0 -1 9714 -9.7283329814672470e-03</internalNodes>
      <leafValues>
        5.3502166271209717e-01 -1.9858400523662567e-01</leafValues></_>
    <_>
      <internalNodes>
        0 -1 509911 -1.7877607024274766e-04</internalNodes>
      <leafValues>
        -4.3594652414321899e-01 2.6298812031745911e-01</leafValues></_>
    <_>
      <internalNodes>
        0 -1 293617 4.9025407060980797e-03</internalNodes>
      <leafValues>
        -2.6346942782402039e-01 3.8272330164909363e-01</leafValues></_>
    <_>
      <internalNodes>
        0 -1 500784 -6.2895719565858599e-06</internalNodes>
      <leafValues>
        3.4468385577201843e-01 -3.5882699489593506e-01</leafValues></_>
    <_>
      <internalNodes>
        0 -1 497290 -8.1581310951150954e-05</internalNodes>
      <leafValues>
        -4.7659662365913391e-01 2.4713051319122314e-01</leafValues></_></weakClassifiers></stage10>
</opencv_storage>
