<?xml version="1.0"?>
<opencv_storage>
<stage11>
  <maxWeakCount>10</maxWeakCount>
  <stageThreshold>-1.5916535854339600e+00</stageThreshold>
  <weakClassifiers>
    <_>
      <internalNodes>
        0 -1 29978 -1.1316677927970886e-01</internalNodes>
      <leafValues>
        -9.0909093618392944e-02 -8.4848487377166748e-01</leafValues></_>
    <_>
      <internalNodes>
        0 -1 169818 -9.0619744732975960e-03</internalNodes>
      <leafValues>
        -4.3472718447446823e-02 -6.0946893692016602e-01</leafValues></_>
    <_>
      <internalNodes>
        0 -1 469259 2.5976200049626641e-05</internalNodes>
      <leafValues>
        1.6279265284538269e-01 -5.2509367465972900e-01</leafValues></_>
    <_>
      <internalNodes>
        0 -1 469365 -2.9188633561716415e-05</internalNodes>
      <leafValues>
        -5.1761204004287720e-01 2.0081585645675659e-01</leafValues></_>
    <_>
      <internalNodes>
        0 -1 363722 -6.2818262449582107e-06</internalNodes>
      <leafValues>
        3.2734498381614685e-01 -3.4116622805595398e-01</leafValues></_>
    <_>
      <internalNodes>
        0 -1 485328 3.9947379264049232e-05</internalNodes>
      <leafValues>
        2.6564094424247742e-01 -4.3645220994949341e-01</leafValues></_>
    <_>
      <internalNodes>
        0 -1 170650 -4.7612331807613373e-02</internalNodes>
      <leafValues>
        6.9610148668289185e-01 -1.9467687606811523e-01</leafValues></_>
    <_>
      <internalNodes>
        0 -1 479459 6.3738750759512186e-04</internalNodes>
      <leafValues>
        -3.2952848076820374e-01 4.3829226493835449e-01</leafValues></_>
    <_>
      <internalNodes>
        0 -1 340873 -7.5735850259661674e-04</internalNodes>
      <leafValues>
        4.3000796437263489e-01 -2.6256373524665833e-01</leafValues></_>
    <_>
      <internalNodes>
        0 -1 76711 2.3188928142189980e-02</internalNodes>
      <leafValues>
        -1.7211361229419708e-01 6.8380934000015259e-01</leafValues></_></weakClassifiers></stage11>
</opencv_storage>
