<?xml version="1.0"?>
<opencv_storage>
<stage9>
  <maxWeakCount>10</maxWeakCount>
  <stageThreshold>-1.5590699911117554e+00</stageThreshold>
  <weakClassifiers>
    <_>
      <internalNodes>
        0 -1 459830 7.8276833519339561e-03</internalNodes>
      <leafValues>
        -8.2632541656494141e-01 6.6666668653488159e-01</leafValues></_>
    <_>
      <internalNodes>
        0 -1 151315 3.0075740069150925e-03</internalNodes>
      <leafValues>
        -4.6786302328109741e-01 1.1927362531423569e-01</leafValues></_>
    <_>
      <internalNodes>
        0 -1 500371 -3.1109292060136795e-02</internalNodes>
      <leafValues>
        -1. 4.6093497425317764e-02</leafValues></_>
    <_>
      <internalNodes>
        0 -1 448288 7.8946854919195175e-03</internalNodes>
      <leafValues>
        -1.7627552151679993e-01 4.2372617125511169e-01</leafValues></_>
    <_>
      <internalNodes>
        0 -1 96047 2.8744840528815985e-04</internalNodes>
      <leafValues>
        1.2760616838932037e-01 -5.9122961759567261e-01</leafValues></_>
    <_>
      <internalNodes>
        0 -1 507219 2.7119708247482777e-03</internalNodes>
      <leafValues>
        -1.9174876809120178e-01 4.5957949757575989e-01</leafValues></_>
    <_>
      <internalNodes>
        0 -1 499162 -9.8761590197682381e-04</internalNodes>
      <leafValues>
        4.2868530750274658e-01 -1.6934835910797119e-01</leafValues></_>
    <_>
      <internalNodes>
        0 -1 124319 2.0214550197124481e-02</internalNodes>
      <leafValues>
        -1.7543695867061615e-01 4.2397546768188477e-01</leafValues></_>
    <_>
      <internalNodes>
        0 -1 491299 -4.4147977605462074e-03</internalNodes>
      <leafValues>
        -8.1086182594299316e-01 9.9070444703102112e-02</leafValues></_>
    <_>
      <internalNodes>
        0 -1 497195 -1.0818224400281906e-03</internalNodes>
      <leafValues>
        2.5069382786750793e-01 -3.4447115659713745e-01</leafValues></_></weakClassifiers></stage9>
</opencv_storage>
