<?xml version="1.0"?>
<opencv_storage>
<stage1>
  <maxWeakCount>8</maxWeakCount>
  <stageThreshold>-1.8944621086120605e+00</stageThreshold>
  <weakClassifiers>
    <_>
      <internalNodes>
        0 -1 418003 -9.6024967730045319e-02</internalNodes>
      <leafValues>
        7.9999998211860657e-02 -8.6095237731933594e-01</leafValues></_>
    <_>
      <internalNodes>
        0 -1 502333 -1.2512042187154293e-02</internalNodes>
      <leafValues>
        1.5637493133544922e-01 -5.8212977647781372e-01</leafValues></_>
    <_>
      <internalNodes>
        0 -1 25552 1.0847335681319237e-02</internalNodes>
      <leafValues>
        -3.5488879680633545e-01 2.9017242789268494e-01</leafValues></_>
    <_>
      <internalNodes>
        0 -1 224001 2.3077783407643437e-04</internalNodes>
      <leafValues>
        1.9705075025558472e-01 -5.8071774244308472e-01</leafValues></_>
    <_>
      <internalNodes>
        0 -1 153394 -4.0553403086960316e-03</internalNodes>
      <leafValues>
        -9.6109122037887573e-01 1.3949047029018402e-01</leafValues></_>
    <_>
      <internalNodes>
        0 -1 357498 -6.8195890635251999e-03</internalNodes>
      <leafValues>
        2.9102900624275208e-01 -3.7355205416679382e-01</leafValues></_>
    <_>
      <internalNodes>
        0 -1 506737 -2.7715112082660198e-04</internalNodes>
      <leafValues>
        -7.3281276226043701e-01 1.8268984556198120e-01</leafValues></_>
    <_>
      <internalNodes>
        0 -1 20303 8.2938522100448608e-03</internalNodes>
      <leafValues>
        -2.4217021465301514e-01 6.3520890474319458e-01</leafValues></_></weakClassifiers></stage1>
</opencv_storage>
