<?xml version="1.0"?>
<opencv_storage>
<stage13>
  <maxWeakCount>10</maxWeakCount>
  <stageThreshold>-1.7072666883468628e+00</stageThreshold>
  <weakClassifiers>
    <_>
      <internalNodes>
        0 -1 445165 -9.6037629991769791e-03</internalNodes>
      <leafValues>
        4.0000000596046448e-01 -8.2935780286788940e-01</leafValues></_>
    <_>
      <internalNodes>
        0 -1 306158 -6.9746258668601513e-04</internalNodes>
      <leafValues>
        -4.6078287065029144e-02 -5.0492489337921143e-01</leafValues></_>
    <_>
      <internalNodes>
        0 -1 47309 -1.6051534563302994e-02</internalNodes>
      <leafValues>
        3.7880864739418030e-01 -2.0396125316619873e-01</leafValues></_>
    <_>
      <internalNodes>
        0 -1 368969 1.6044812509790063e-03</internalNodes>
      <leafValues>
        1.1567553877830505e-01 -6.8907284736633301e-01</leafValues></_>
    <_>
      <internalNodes>
        0 -1 491698 4.9162912182509899e-04</internalNodes>
      <leafValues>
        -2.1189282834529877e-01 3.0947881937026978e-01</leafValues></_>
    <_>
      <internalNodes>
        0 -1 495182 -3.1584306270815432e-05</internalNodes>
      <leafValues>
        2.4741347134113312e-01 -2.8237235546112061e-01</leafValues></_>
    <_>
      <internalNodes>
        0 -1 41641 2.6947250589728355e-03</internalNodes>
      <leafValues>
        -2.5014501810073853e-01 2.7289327979087830e-01</leafValues></_>
    <_>
      <internalNodes>
        0 -1 31237 1.6630439087748528e-02</internalNodes>
      <leafValues>
        1.2386728823184967e-01 -6.2042814493179321e-01</leafValues></_>
    <_>
      <internalNodes>
        0 -1 224519 3.9287032559514046e-03</internalNodes>
      <leafValues>
        -1.9990511238574982e-01 4.0069314837455750e-01</leafValues></_>
    <_>
      <internalNodes>
        0 -1 12243 -4.7170306788757443e-04</internalNodes>
      <leafValues>
        -5.9463429450988770e-01 1.4002911746501923e-01</leafValues></_></weakClassifiers></stage13>
</opencv_storage>
