<?xml version="1.0"?>
<opencv_storage>
<stage0>
  <maxWeakCount>7</maxWeakCount>
  <stageThreshold>-1.4984384775161743e+00</stageThreshold>
  <weakClassifiers>
    <_>
      <internalNodes>
        0 -1 43731 5.5463388562202454e-02</internalNodes>
      <leafValues>
        -8.5205990076065063e-01 3.1250000000000000e-01</leafValues></_>
    <_>
      <internalNodes>
        0 -1 239482 8.8965911418199539e-03</internalNodes>
      <leafValues>
        -5.5770570039749146e-01 3.5026198625564575e-01</leafValues></_>
    <_>
      <internalNodes>
        0 -1 466707 -2.4585882783867419e-04</internalNodes>
      <leafValues>
        5.5209797620773315e-01 -3.4409695863723755e-01</leafValues></_>
    <_>
      <internalNodes>
        0 -1 74837 2.8580930083990097e-02</internalNodes>
      <leafValues>
        -3.0055239796638489e-01 5.1041018962860107e-01</leafValues></_>
    <_>
      <internalNodes>
        0 -1 458431 -9.7613595426082611e-03</internalNodes>
      <leafValues>
        3.9661088585853577e-01 -3.9731019735336304e-01</leafValues></_>
    <_>
      <internalNodes>
        0 -1 444210 -1.4220806770026684e-03</internalNodes>
      <leafValues>
        5.0004291534423828e-01 -2.9724594950675964e-01</leafValues></_>
    <_>
      <internalNodes>
        0 -1 59052 6.3448962755501270e-03</internalNodes>
      <leafValues>
        -2.9757905006408691e-01 4.5661157369613647e-01</leafValues></_></weakClassifiers></stage0>
</opencv_storage>
