<?xml version="1.0"?>
<opencv_storage>
<stage13>
  <maxWeakCount>10</maxWeakCount>
  <stageThreshold>-1.6970498561859131e+00</stageThreshold>
  <weakClassifiers>
    <_>
      <internalNodes>
        0 -1 500 -1.1458104848861694e-01</internalNodes>
      <leafValues>
        1. -8.2648402452468872e-01</leafValues></_>
    <_>
      <internalNodes>
        0 -1 128444 -1.1095581576228142e-02</internalNodes>
      <leafValues>
        3.8237217068672180e-01 -4.2209663987159729e-01</leafValues></_>
    <_>
      <internalNodes>
        0 -1 267901 5.5506493663415313e-04</internalNodes>
      <leafValues>
        -2.3193997144699097e-01 3.2604253292083740e-01</leafValues></_>
    <_>
      <internalNodes>
        0 -1 28800 -8.0922880442813039e-04</internalNodes>
      <leafValues>
        -5.5816251039505005e-01 1.4639827609062195e-01</leafValues></_>
    <_>
      <internalNodes>
        0 -1 487694 -3.0021992279216647e-04</internalNodes>
      <leafValues>
        3.5936287045478821e-01 -1.8639336526393890e-01</leafValues></_>
    <_>
      <internalNodes>
        0 -1 489977 -4.6479745651595294e-04</internalNodes>
      <leafValues>
        -6.2177670001983643e-01 1.7210687696933746e-01</leafValues></_>
    <_>
      <internalNodes>
        0 -1 118414 4.7734292456880212e-04</internalNodes>
      <leafValues>
        -3.2225257158279419e-01 2.1380303800106049e-01</leafValues></_>
    <_>
      <internalNodes>
        0 -1 378648 -3.4775985404849052e-03</internalNodes>
      <leafValues>
        -8.1224006414413452e-01 9.5728494226932526e-02</leafValues></_>
    <_>
      <internalNodes>
        0 -1 198184 7.4074810072488617e-06</internalNodes>
      <leafValues>
        -3.0009433627128601e-01 2.2728696465492249e-01</leafValues></_>
    <_>
      <internalNodes>
        0 -1 119209 7.8131759073585272e-04</internalNodes>
      <leafValues>
        1.1704276502132416e-01 -6.3733220100402832e-01</leafValues></_></weakClassifiers></stage13>
</opencv_storage>
