<?xml version="1.0"?>
<opencv_storage>
<stage3>
  <maxWeakCount>8</maxWeakCount>
  <stageThreshold>-1.5490324497222900e+00</stageThreshold>
  <weakClassifiers>
    <_>
      <internalNodes>
        0 -1 234105 3.7569340318441391e-02</internalNodes>
      <leafValues>
        -8.4014868736267090e-01 1.6666667163372040e-01</leafValues></_>
    <_>
      <internalNodes>
        0 -1 491080 7.3658907786011696e-04</internalNodes>
      <leafValues>
        -5.4682564735412598e-01 9.0193860232830048e-02</leafValues></_>
    <_>
      <internalNodes>
        0 -1 508065 -1.4916629879735410e-05</internalNodes>
      <leafValues>
        2.4009214341640472e-01 -3.9907404780387878e-01</leafValues></_>
    <_>
      <internalNodes>
        0 -1 323292 -6.1707006534561515e-04</internalNodes>
      <leafValues>
        3.9887294173240662e-01 -2.6797407865524292e-01</leafValues></_>
    <_>
      <internalNodes>
        0 -1 100840 -3.2211713492870331e-02</internalNodes>
      <leafValues>
        6.9335263967514038e-01 -1.5650792419910431e-01</leafValues></_>
    <_>
      <internalNodes>
        0 -1 266710 7.3869875632226467e-04</internalNodes>
      <leafValues>
        -2.0778779685497284e-01 5.0523048639297485e-01</leafValues></_>
    <_>
      <internalNodes>
        0 -1 239182 1.3945529237389565e-02</internalNodes>
      <leafValues>
        1.2364518642425537e-01 -9.4489228725433350e-01</leafValues></_>
    <_>
      <internalNodes>
        0 -1 144264 -3.5555809736251831e-02</internalNodes>
      <leafValues>
        -8.3025032281875610e-01 1.0862109810113907e-01</leafValues></_></weakClassifiers></stage3>
</opencv_storage>
