<?xml version="1.0"?>
<opencv_storage>
<stage5>
  <maxWeakCount>10</maxWeakCount>
  <stageThreshold>-1.7842247486114502e+00</stageThreshold>
  <weakClassifiers>
    <_>
      <internalNodes>
        0 -1 329921 -4.8863738775253296e-02</internalNodes>
      <leafValues>
        -3.2352942228317261e-01 -8.5077518224716187e-01</leafValues></_>
    <_>
      <internalNodes>
        0 -1 212647 -5.1458990201354027e-03</internalNodes>
      <leafValues>
        -1.9218744710087776e-02 -5.3081756830215454e-01</leafValues></_>
    <_>
      <internalNodes>
        0 -1 246086 3.8572345511056483e-04</internalNodes>
      <leafValues>
        1.1339850723743439e-01 -6.4924502372741699e-01</leafValues></_>
    <_>
      <internalNodes>
        0 -1 424861 -9.4858079683035612e-04</internalNodes>
      <leafValues>
        3.2379379868507385e-01 -2.6491713523864746e-01</leafValues></_>
    <_>
      <internalNodes>
        0 -1 172934 1.7817680491134524e-03</internalNodes>
      <leafValues>
        2.1120454370975494e-01 -5.4398578405380249e-01</leafValues></_>
    <_>
      <internalNodes>
        0 -1 36891 -7.1724308654665947e-03</internalNodes>
      <leafValues>
        3.8773545622825623e-01 -2.2258219122886658e-01</leafValues></_>
    <_>
      <internalNodes>
        0 -1 395343 6.9512007758021355e-04</internalNodes>
      <leafValues>
        1.0660772025585175e-01 -8.5527366399765015e-01</leafValues></_>
    <_>
      <internalNodes>
        0 -1 335883 -2.4933360517024994e-02</internalNodes>
      <leafValues>
        4.0370109677314758e-01 -2.2788278758525848e-01</leafValues></_>
    <_>
      <internalNodes>
        0 -1 450301 1.7891838797368109e-04</internalNodes>
      <leafValues>
        2.1290941536426544e-01 -4.0461733937263489e-01</leafValues></_>
    <_>
      <internalNodes>
        0 -1 138707 3.5130167816532776e-05</internalNodes>
      <leafValues>
        -3.0255419015884399e-01 2.8667545318603516e-01</leafValues></_></weakClassifiers></stage5>
</opencv_storage>
